<?xml version="1.0"?>
<opencv_storage>
<cascade>
  <stageType>BOOST</stageType>
  <featureType>LBP</featureType>
  <height>60</height>
  <width>60</width>
  <stageParams>
    <boostType>GAB</boostType>
    <minHitRate>9.9989998340606689e-01</minHitRate>
    <maxFalseAlarm>4.0000000596046448e-01</maxFalseAlarm>
    <weightTrimRate>9.4999999999999996e-01</weightTrimRate>
    <maxDepth>1</maxDepth>
    <maxWeakCount>100</maxWeakCount></stageParams>
  <featureParams>
    <maxCatCount>256</maxCatCount>
    <featSize>1</featSize></featureParams>
  <stageNum>17</stageNum>
  <stages>
    <!-- stage 0 -->
    <_>
      <maxWeakCount>5</maxWeakCount>
      <stageThreshold>-1.4788606166839600e+00</stageThreshold>
      <weakClassifiers>
        <_>
          <internalNodes>
            0 -1 87 -2118981 -2120737 -251198789 -2129749 -4473925
            -1323105 -6313285 -21829</internalNodes>
          <leafValues>
            -8.4713619947433472e-01 7.8129756450653076e-01</leafValues></_>
        <_>
          <internalNodes>
            0 -1 17 -29294642 -163381538 -369624065 -9440769 -637469744
            -44780637 -619709441 -1025</internalNodes>
          <leafValues>
            -8.6981934309005737e-01 5.8016151189804077e-01</leafValues></_>
        <_>
          <internalNodes>
            0 -1 153 -1 -2593 726901183 -1143227617 738134671
            -1079260165 177933071 1073724415</internalNodes>
          <leafValues>
            -7.8521507978439331e-01 5.8074903488159180e-01</leafValues></_>
        <_>
          <internalNodes>
            0 -1 163 -858792756 -590548484 -1046031491 -570559009
            -576927600 -575944031 -108397361 -1</internalNodes>
          <leafValues>
            -8.1050664186477661e-01 5.1202881336212158e-01</leafValues></_>
        <_>
          <internalNodes>
            0 -1 35 1600118783 353339663 -913089217 67962415 2070102527
            -1684309361 2000646143 1530886015</internalNodes>
          <leafValues>
            -7.4230206012725830e-01 5.1128125190734863e-01</leafValues></_></weakClassifiers></_>
    <!-- stage 1 -->
    <_>
      <maxWeakCount>6</maxWeakCount>
      <stageThreshold>-1.8101309537887573e+00</stageThreshold>
      <weakClassifiers>
        <_>
          <internalNodes>
            0 -1 97 -2118721 -676865 -778720581 -33707351 -103170113
            -70849537 -2121045 -2118725</internalNodes>
          <leafValues>
            -7.8379505872726440e-01 5.3424656391143799e-01</leafValues></_>
        <_>
          <internalNodes>
            0 -1 3 -220731166 -67108865 -757859600 -33696801 -1164968961
            -71304197 -739262465 -1</internalNodes>
          <leafValues>
            -7.1062076091766357e-01 6.1098164319992065e-01</leafValues></_>
        <_>
          <internalNodes>
            0 -1 58 -252643472 -705560581 1349613559 1979399647
            -205520897 -72406862 -67108869 -5393</internalNodes>
          <leafValues>
            -7.6825994253158569e-01 4.8346140980720520e-01</leafValues></_>
        <_>
          <internalNodes>
            0 -1 8 -257 -3145761 -23140184 -525274448 -70255755 -2116875
            -4856732 -192941854</internalNodes>
          <leafValues>
            -7.2208970785140991e-01 4.9175494909286499e-01</leafValues></_>
        <_>
          <internalNodes>
            0 -1 41 -4194305 -436734465 -553257473 -282330289 -100664114
            -286925885 -14949025 256896783</internalNodes>
          <leafValues>
            -5.8298552036285400e-01 5.9317451715469360e-01</leafValues></_>
        <_>
          <internalNodes>
            0 -1 221 -268440049 -2625745 -1542504209 -277875233
            -280295416 1214229791 -970200050 -269485057</internalNodes>
          <leafValues>
            -5.9153050184249878e-01 5.8145993947982788e-01</leafValues></_></weakClassifiers></_>
    <!-- stage 2 -->
    <_>
      <maxWeakCount>8</maxWeakCount>
      <stageThreshold>-1.9040751457214355e+00</stageThreshold>
      <weakClassifiers>
        <_>
          <internalNodes>
            0 -1 113 -36700209 -44042273 -548616756 -573716594 -69211153
            -274497 -15996210 -3421814</internalNodes>
          <leafValues>
            -7.3957693576812744e-01 4.9916246533393860e-01</leafValues></_>
        <_>
          <internalNodes>
            0 -1 164 -1048578 -863175992 -216925321 -3073 -595788556
            -670243372 -75236865 -1025</internalNodes>
          <leafValues>
            -6.6968458890914917e-01 4.8157551884651184e-01</leafValues></_>
        <_>
          <internalNodes>
            0 -1 1 -486554950 719265978 -142353101 -100678566 21860519
            1144746090 -19936261 -1</internalNodes>
          <leafValues>
            -5.9770971536636353e-01 5.4134446382522583e-01</leafValues></_>
        <_>
          <internalNodes>
            0 -1 109 1347745008 -570433537 1634850687 -2122757
            2003828735 -6585654 2006969263 -1062417</internalNodes>
          <leafValues>
            -7.6075893640518188e-01 3.9495527744293213e-01</leafValues></_>
        <_>
          <internalNodes>
            0 -1 200 -1249 1598029615 -129 -67108873 1040138067
            2071953279 -17 -1</internalNodes>
          <leafValues>
            -4.9539050459861755e-01 6.3504314422607422e-01</leafValues></_>
        <_>
          <internalNodes>
            0 -1 77 -673711137 -610542593 -639500419 1872750335
            -624992418 -858609287 1590644303 1310671951</internalNodes>
          <leafValues>
            -6.1443763971328735e-01 4.4387337565422058e-01</leafValues></_>
        <_>
          <internalNodes>
            0 -1 50 1073739519 1004497316 -1693852321 722152203 -6620193
            -10368104 -371326977 1073706939</internalNodes>
          <leafValues>
            -7.8720366954803467e-01 3.7743124365806580e-01</leafValues></_>
        <_>
          <internalNodes>
            0 -1 226 -6291481 -320603326 -527907072 -861126436
            -236981289 -1145313429 -867187196 -590349473</internalNodes>
          <leafValues>
            -6.0768616199493408e-01 4.5371243357658386e-01</leafValues></_></weakClassifiers></_>
    <!-- stage 3 -->
    <_>
      <maxWeakCount>10</maxWeakCount>
      <stageThreshold>-2.4615368843078613e+00</stageThreshold>
      <weakClassifiers>
        <_>
          <internalNodes>
            0 -1 4 -273682513 -1440026870 -44836865 -347350257
            2126494655 1330866447 -70255617 -1</internalNodes>
          <leafValues>
            -6.6262233257293701e-01 4.7081711888313293e-01</leafValues></_>
        <_>
          <internalNodes>
            0 -1 170 2145384447 2147481823 -456855041 -35782657
            1877934335 -5246225 1207899119 2147450879</internalNodes>
          <leafValues>
            -7.0458573102951050e-01 4.0741696953773499e-01</leafValues></_>
        <_>
          <internalNodes>
            0 -1 197 -13 -67371051 1693675888 -212602111 -16785429
            -4194389 -151522366 -202639365</internalNodes>
          <leafValues>
            -4.8655602335929871e-01 6.1505317687988281e-01</leafValues></_>
        <_>
          <internalNodes>
            0 -1 117 -524289 -737084080 -708916906 -548340876 1364458495
            -536753427 -2007242021 -168428553</internalNodes>
          <leafValues>
            -4.8970898985862732e-01 5.5615687370300293e-01</leafValues></_>
        <_>
          <internalNodes>
            0 -1 19 -154997182 -68684065 -312290945 -3008055 1482751572
            -80291597 -359610209 -4208197</internalNodes>
          <leafValues>
            -6.4496856927871704e-01 4.1912472248077393e-01</leafValues></_>
        <_>
          <internalNodes>
            0 -1 86 -539760849 1062965681 957060031 -1080175109
            2040347007 1068102025 -1883530241 -1</internalNodes>
          <leafValues>
            -5.3041541576385498e-01 4.9006661772727966e-01</leafValues></_>
        <_>
          <internalNodes>
            0 -1 183 68689137 -1074199627 -1214292129 -6529195
            -1461911555 -68493377 -1345127425 -1078042831</internalNodes>
          <leafValues>
            -5.2766859531402588e-01 4.9058729410171509e-01</leafValues></_>
        <_>
          <internalNodes>
            0 -1 120 -134230801 -541073985 -5243473 -638716182 -1573377
            -151003265 -32641073 -268174706</internalNodes>
          <leafValues>
            -4.4119733572006226e-01 5.5637657642364502e-01</leafValues></_>
        <_>
          <internalNodes>
            0 -1 22 -1049873 -23135283 -827530038 -90480566 -75580154
            -810855513 -882848182 -771768253</internalNodes>
          <leafValues>
            -5.7094091176986694e-01 4.6566218137741089e-01</leafValues></_>
        <_>
          <internalNodes>
            0 -1 206 -992674090 5558687 -1011484291 -1421616365 -8926273
            -73479253 -134182741 -74974325</internalNodes>
          <leafValues>
            -6.1444139480590820e-01 4.1929963231086731e-01</leafValues></_></weakClassifiers></_>
    <!-- stage 4 -->
    <_>
      <maxWeakCount>12</maxWeakCount>
      <stageThreshold>-1.7635362148284912e+00</stageThreshold>
      <weakClassifiers>
        <_>
          <internalNodes>
            0 -1 108 -34079235 1372967197 -401409 498859999 -191958788
            -857896739 -57672193 -2003828805</internalNodes>
          <leafValues>
            -6.0742408037185669e-01 4.5781201124191284e-01</leafValues></_>
        <_>
          <internalNodes>
            0 -1 227 -269005041 1602187639 -1011878657 2134636383
            -396408828 1332961129 -480253813 -1</internalNodes>
          <leafValues>
            -5.9079927206039429e-01 4.7008717060089111e-01</leafValues></_>
        <_>
          <internalNodes>
            0 -1 61 -50337025 -536871297 2020146910 1885499098
            -922959732 -16786019 -934229794 -84222214</internalNodes>
          <leafValues>
            -5.0254487991333008e-01 5.2288180589675903e-01</leafValues></_>
        <_>
          <internalNodes>
            0 -1 75 -573046785 -52897 425590271 -302000417 -2097153
            -56324443 -285737153 1146608463</internalNodes>
          <leafValues>
            -5.1123589277267456e-01 5.1384270191192627e-01</leafValues></_>
        <_>
          <internalNodes>
            0 -1 100 -942674393 1976909597 64351031 -178261155 59353515
            -584933238 -1567905537 -1074935297</internalNodes>
          <leafValues>
            -5.0075358152389526e-01 5.0944846868515015e-01</leafValues></_>
        <_>
          <internalNodes>
            0 -1 23 1809174445 792710495 -384700418 -142479207
            2141897727 -67525958 -661979141 -12588581</internalNodes>
          <leafValues>
            -5.3409039974212646e-01 4.5879802107810974e-01</leafValues></_>
        <_>
          <internalNodes>
            0 -1 123 -2105347 -21042316 -577250913 -1383072856
            -183766859 -549478096 -202393221 791674371</internalNodes>
          <leafValues>
            -5.2012223005294800e-01 4.5695117115974426e-01</leafValues></_>
        <_>
          <internalNodes>
            0 -1 189 -11011883 -135341167 17298303 -1051785 -522851859
            -389293941 -142484775 -329202928</internalNodes>
          <leafValues>
            -5.3908622264862061e-01 4.5933219790458679e-01</leafValues></_>
        <_>
          <internalNodes>
            0 -1 7 -93061377 -192938849 -185544336 -220685410 2035285766
            -31022925 -77162140 -59248833</internalNodes>
          <leafValues>
            -5.6181192398071289e-01 4.6007853746414185e-01</leafValues></_>
        <_>
          <internalNodes>
            0 -1 45 -193660048 -723574693 -252584107 1358782619 -1707212
            -72644341 -89134433 -7370069</internalNodes>
          <leafValues>
            -7.9972016811370850e-01 2.9862838983535767e-01</leafValues></_>
        <_>
          <internalNodes>
            0 -1 210 -100664559 -879560694 -782773904 -538741376
            -290140165 -384289015 -118951502 -1381236822</internalNodes>
          <leafValues>
            -5.0556951761245728e-01 4.5464980602264404e-01</leafValues></_>
        <_>
          <internalNodes>
            0 -1 125 -167780126 1603267311 -370674171 -45104685
            -1500809601 402751720 542589479 592413663</internalNodes>
          <leafValues>
            -6.2555623054504395e-01 3.7373730540275574e-01</leafValues></_></weakClassifiers></_>
    <!-- stage 5 -->
    <_>
      <maxWeakCount>12</maxWeakCount>
      <stageThreshold>-1.8047708272933960e+00</stageThreshold>
      <weakClassifiers>
        <_>
          <internalNodes>
            0 -1 21 -556074241 -2108673 -2139032834 -2112769 1931535039
            -69533441 809562367 -257</internalNodes>
          <leafValues>
            -5.4249703884124756e-01 5.3178292512893677e-01</leafValues></_>
        <_>
          <internalNodes>
            0 -1 137 -16842753 -8679969 -208929321 -170177569 -85464149
            -82854145 -184812801 -2002071921</internalNodes>
          <leafValues>
            -4.9550476670265198e-01 5.0033175945281982e-01</leafValues></_>
        <_>
          <internalNodes>
            0 -1 220 -340793310 1479763315 -471403813 -547362825
            -766672334 -1436880875 -1600454918 -1</internalNodes>
          <leafValues>
            -5.5713713169097900e-01 4.3508526682853699e-01</leafValues></_>
        <_>
          <internalNodes>
            0 -1 168 -546311376 -1608323072 -544877103 -142346832
            2065429331 -1081886925 -25183237 -1347420353</internalNodes>
          <leafValues>
            -5.2652788162231445e-01 4.3684360384941101e-01</leafValues></_>
        <_>
          <internalNodes>
            0 -1 37 126821143 -942061235 13965311 -15134371 599799615
            -1108862840 994236927 -4589073</internalNodes>
          <leafValues>
            -5.8098536729812622e-01 4.3263164162635803e-01</leafValues></_>
        <_>
          <internalNodes>
            0 -1 185 741375349 -11249801 -34153473 -98407 -1077053963
            -72376165 -73630211 -1346879631</internalNodes>
          <leafValues>
            -5.7880967855453491e-01 3.4358587861061096e-01</leafValues></_>
        <_>
          <internalNodes>
            0 -1 95 -537919750 1528823502 1621489842 1079502584
            1296292490 -653538929 489156402 -764161942</internalNodes>
          <leafValues>
            -6.2079477310180664e-01 3.5783049464225769e-01</leafValues></_>
        <_>
          <internalNodes>
            0 -1 0 -1951421021 747044239 -1377313705 -1395731505
            83852587 248932763 1905226583 1339028959</internalNodes>
          <leafValues>
            -6.7899018526077271e-01 3.0860456824302673e-01</leafValues></_>
        <_>
          <internalNodes>
            0 -1 42 -134220609 -2125353 1916861055 838914814 -570979784
            -71082307 -524228036 -529334529</internalNodes>
          <leafValues>
            -4.7193440794944763e-01 4.3690866231918335e-01</leafValues></_>
        <_>
          <internalNodes>
            0 -1 214 1541264959 2102358495 -1760444641 2012718063
            -94637561 2101553211 -5506057 -76283969</internalNodes>
          <leafValues>
            -5.0425481796264648e-01 4.1269308328628540e-01</leafValues></_>
        <_>
          <internalNodes>
            0 -1 178 -1432932561 -1432301257 -1030528241 -368307953
            -523545225 -123879029 -1245104892 -420289037</internalNodes>
          <leafValues>
            -5.7984453439712524e-01 3.7639608979225159e-01</leafValues></_>
        <_>
          <internalNodes>
            0 -1 76 -436928586 -50794497 -16973825 -134221825 -163512336
            -127883778 -2424961 1608474363</internalNodes>
          <leafValues>
            -4.5002233982086182e-01 4.8446521162986755e-01</leafValues></_></weakClassifiers></_>
    <!-- stage 6 -->
    <_>
      <maxWeakCount>14</maxWeakCount>
      <stageThreshold>-1.8424258232116699e+00</stageThreshold>
      <weakClassifiers>
        <_>
          <internalNodes>
            0 -1 171 -11337729 -5070085 -75112449 -7122369 1664216575
            -13506014 1112759551 -12106381</internalNodes>
          <leafValues>
            -5.8704149723052979e-01 4.3506494164466858e-01</leafValues></_>
        <_>
          <internalNodes>
            0 -1 172 -33554433 -33554433 -33816904 -5 -341 -1426063365
            -83887446 -354681925</internalNodes>
          <leafValues>
            -4.2196071147918701e-01 5.5679428577423096e-01</leafValues></_>
        <_>
          <internalNodes>
            0 -1 184 70786677 737638905 -136373761 -1077981219
            -1144291329 -69233909 -1102087169 -1073791233</internalNodes>
          <leafValues>
            -5.9597647190093994e-01 3.8353478908538818e-01</leafValues></_>
        <_>
          <internalNodes>
            0 -1 9 -270555153 -1362110485 -135013377 -540016801
            1271097311 1275064967 -603979777 -268435489</internalNodes>
          <leafValues>
            -4.9554979801177979e-01 4.2291450500488281e-01</leafValues></_>
        <_>
          <internalNodes>
            0 -1 116 -461374605 -29780730 -64687024 -453182724
            -1349148801 1745687065 -168427663 -36307025</internalNodes>
          <leafValues>
            -4.7102165222167969e-01 4.3114763498306274e-01</leafValues></_>
        <_>
          <internalNodes>
            0 -1 196 915434613 -1761837203 -84545603 -1074644135
            -1409516547 -1078202705 -1147377155 -1364453292</internalNodes>
          <leafValues>
            -6.3049560785293579e-01 2.9632610082626343e-01</leafValues></_>
        <_>
          <internalNodes>
            0 -1 12 -2101301 -541145462 -1024338822 -218971566 -86324369
            -2320313 -1565562377 -150997922</internalNodes>
          <leafValues>
            -5.3717905282974243e-01 3.7847241759300232e-01</leafValues></_>
        <_>
          <internalNodes>
            0 -1 91 -705701923 360038201 -268435521 -1649672394
            -721431106 -1932084545 -369259032 -1936072793</internalNodes>
          <leafValues>
            -4.1652241349220276e-01 5.2142804861068726e-01</leafValues></_>
        <_>
          <internalNodes>
            0 -1 147 223615348 -1080766001 389902303 -2620035 -471023620
            -67308635 -539165448 -1887494721</internalNodes>
          <leafValues>
            -5.0520098209381104e-01 3.8931629061698914e-01</leafValues></_>
        <_>
          <internalNodes>
            0 -1 124 1170699349 2002487295 -796082562 -665083493
            2005877012 -557078257 -184724364 -722481185</internalNodes>
          <leafValues>
            -6.3386696577072144e-01 3.0681973695755005e-01</leafValues></_>
        <_>
          <internalNodes>
            0 -1 139 -32711684 2110554781 -1115957797 -1363369513
            -11957263 -36405112 -4309165 721359275</internalNodes>
          <leafValues>
            -5.6806230545043945e-01 3.3626821637153625e-01</leafValues></_>
        <_>
          <internalNodes>
            0 -1 72 1361572387 855767859 -592076013 1969068113
            1903662078 -1677788717 864288191 -1086565</internalNodes>
          <leafValues>
            -4.4478231668472290e-01 4.3344631791114807e-01</leafValues></_>
        <_>
          <internalNodes>
            0 -1 143 165496181 780017503 -66719045 -1361431745
            1490767219 -604000566 -537396399 -1464013532</internalNodes>
          <leafValues>
            -6.9729071855545044e-01 2.6529601216316223e-01</leafValues></_>
        <_>
          <internalNodes>
            0 -1 180 -80741967 -819796704 -1275112463 -407635469
            -272769221 -4784333 -645956117 -1382818389</internalNodes>
          <leafValues>
            -3.7326869368553162e-01 5.0963467359542847e-01</leafValues></_></weakClassifiers></_>
    <!-- stage 7 -->
    <_>
      <maxWeakCount>16</maxWeakCount>
      <stageThreshold>-2.0811762809753418e+00</stageThreshold>
      <weakClassifiers>
        <_>
          <internalNodes>
            0 -1 38 -11141121 -549127418 -1839859109 -570109618
            -11158785 -78269795 -27711237 -12202017</internalNodes>
          <leafValues>
            -6.3505870103836060e-01 2.8730860352516174e-01</leafValues></_>
        <_>
          <internalNodes>
            0 -1 232 -570425865 -841027169 1155386820 -571543912
            -924327433 -812766262 -574102043 -35652633</internalNodes>
          <leafValues>
            -4.7130325436592102e-01 4.5617821812629700e-01</leafValues></_>
        <_>
          <internalNodes>
            0 -1 208 1081229555 1523666271 579061467 848758350
            -144185345 -1086358485 -142872833 -8392721</internalNodes>
          <leafValues>
            -5.2208751440048218e-01 3.9199793338775635e-01</leafValues></_>
        <_>
          <internalNodes>
            0 -1 65 -741085699 1147590108 -710190593 -807412737
            -102760651 1097921333 -676480161 190578543</internalNodes>
          <leafValues>
            -5.1031607389450073e-01 3.7194061279296875e-01</leafValues></_>
        <_>
          <internalNodes>
            0 -1 5 -268991961 -1879637342 -1266025191 -339243514
            -896413965 198787783 -266282033 -262193</internalNodes>
          <leafValues>
            -5.2104663848876953e-01 3.9644464850425720e-01</leafValues></_>
        <_>
          <internalNodes>
            0 -1 165 -1434514137 646925727 166721076 -1460888657
            -644907209 -541343005 -423906346 -17319009</internalNodes>
          <leafValues>
            -5.8442384004592896e-01 2.9428210854530334e-01</leafValues></_>
        <_>
          <internalNodes>
            0 -1 131 -67831307 -685778977 -652753953 -1282166113
            1424818169 -33722819 1001878779 725298707</internalNodes>
          <leafValues>
            -4.2729204893112183e-01 4.2611432075500488e-01</leafValues></_>
        <_>
          <internalNodes>
            0 -1 26 -268435521 2006971391 -129771869 -218958318
            1796987655 1802996599 1393425223 -202966145</internalNodes>
          <leafValues>
            -4.3426260352134705e-01 4.0621694922447205e-01</leafValues></_>
        <_>
          <internalNodes>
            0 -1 162 -42215503 -774131217 1388437437 -12192985
            -856699969 -531745 -243931519 -1033641728</internalNodes>
          <leafValues>
            -4.6050667762756348e-01 3.9591130614280701e-01</leafValues></_>
        <_>
          <internalNodes>
            0 -1 115 1741416107 1602817024 -1552428365 -671805179
            680700822 -1150811501 11663579 2013070202</internalNodes>
          <leafValues>
            -5.5482494831085205e-01 2.9888051748275757e-01</leafValues></_>
        <_>
          <internalNodes>
            0 -1 229 -415767725 -1366298353 -1094189326 -2109568706
            -138678700 -1693461297 -155584624 -22877264</internalNodes>
          <leafValues>
            -5.5072289705276489e-01 3.2622206211090088e-01</leafValues></_>
        <_>
          <internalNodes>
            0 -1 219 -83887109 -1951673566 2102252434 2104481104
            -369366021 -302275881 -306710672 -436210710</internalNodes>
          <leafValues>
            -4.3884027004241943e-01 4.0596157312393188e-01</leafValues></_>
        <_>
          <internalNodes>
            0 -1 69 -153561796 -772995004 -586123585 -174252332
            -125174875 -625313543 -1399784513 983773461</internalNodes>
          <leafValues>
            -5.3414958715438843e-01 3.2156080007553101e-01</leafValues></_>
        <_>
          <internalNodes>
            0 -1 148 1278736756 -1408841168 -1266459268 -1892951647
            -685836675 522774624 1823443499 789577259</internalNodes>
          <leafValues>
            -5.2500158548355103e-01 3.4298467636108398e-01</leafValues></_>
        <_>
          <internalNodes>
            0 -1 215 242955639 1409014415 -720643683 -203798049
            -270829059 -937737845 -612012773 -4261409</internalNodes>
          <leafValues>
            -4.4011989235877991e-01 4.0676239132881165e-01</leafValues></_>
        <_>
          <internalNodes>
            0 -1 146 339762804 -713802917 83990647 334763869 2002836217
            -387022661 -1202906497 771696659</internalNodes>
          <leafValues>
            -5.4681986570358276e-01 3.4576231241226196e-01</leafValues></_></weakClassifiers></_>
    <!-- stage 8 -->
    <_>
      <maxWeakCount>15</maxWeakCount>
      <stageThreshold>-1.7057168483734131e+00</stageThreshold>
      <weakClassifiers>
        <_>
          <internalNodes>
            0 -1 169 -841089025 -572670021 -13917873 1566552383
            -1068172836 -642145621 -783942507 -572653585</internalNodes>
          <leafValues>
            -6.3780957460403442e-01 2.4543209373950958e-01</leafValues></_>
        <_>
          <internalNodes>
            0 -1 27 -33555713 -1 1392434932 -218631438 -54526245 -35073
            -184879890 -1313</internalNodes>
          <leafValues>
            -4.1929662227630615e-01 4.9622517824172974e-01</leafValues></_>
        <_>
          <internalNodes>
            0 -1 90 -570427907 1440576785 -1241528353 301850621
            -587344716 -254217996 -1124090130 -1465124865</internalNodes>
          <leafValues>
            -3.9237385988235474e-01 4.8174524307250977e-01</leafValues></_>
        <_>
          <internalNodes>
            0 -1 82 2143285039 -37366579 757591311 -1347428971 -262337
            -105390648 791621423 -1347420881</internalNodes>
          <leafValues>
            -5.3002548217773438e-01 3.3181467652320862e-01</leafValues></_>
        <_>
          <internalNodes>
            0 -1 128 -100663297 -33902657 -268484802 1466642210
            2146859003 -182435022 -831045633 2138245739</internalNodes>
          <leafValues>
            -3.8951915502548218e-01 4.6451956033706665e-01</leafValues></_>
        <_>
          <internalNodes>
            0 -1 182 641212276 -35767812 -41689697 -1076629163
            -1148417550 -17062401 -1142474241 -1147532040</internalNodes>
          <leafValues>
            -5.0525158643722534e-01 3.3481979370117188e-01</leafValues></_>
        <_>
          <internalNodes>
            0 -1 238 1874067327 798946527 -173717897 1653798166
            2038894391 -105928425 -185931660 -537591947</internalNodes>
          <leafValues>
            -4.9600189924240112e-01 3.4272515773773193e-01</leafValues></_>
        <_>
          <internalNodes>
            0 -1 217 739800953 -275409921 -184025097 -38994469 784300767
            -47738647 -100935179 -285454347</internalNodes>
          <leafValues>
            -4.9344059824943542e-01 3.2235285639762878e-01</leafValues></_>
        <_>
          <internalNodes>
            0 -1 154 -287840222 1722517807 -38835680 -1933314070
            -397984505 -970462341 -712523773 -193462273</internalNodes>
          <leafValues>
            -6.0169070959091187e-01 2.8494098782539368e-01</leafValues></_>
        <_>
          <internalNodes>
            0 -1 40 -4457349 -319818789 -176488961 -436020982 -772847011
            1133488303 -657728973 -285959176</internalNodes>
          <leafValues>
            -4.8999062180519104e-01 3.2129341363906860e-01</leafValues></_>
        <_>
          <internalNodes>
            0 -1 193 1967243263 -1205153775 1442315672 -1716861616
            -216268869 -1358126798 1988745802 -1909721078</internalNodes>
          <leafValues>
            -4.4303587079048157e-01 3.7622001767158508e-01</leafValues></_>
        <_>
          <internalNodes>
            0 -1 46 201532223 -807860225 588330295 22108439 -1166002114
            -107908856 -1509393509 -555992751</internalNodes>
          <leafValues>
            -5.2835148572921753e-01 3.0196493864059448e-01</leafValues></_>
        <_>
          <internalNodes>
            0 -1 236 -16840185 1065276786 -985416591 48192343 -118537903
            1298903378 -115748483 -444862465</internalNodes>
          <leafValues>
            -5.1952201128005981e-01 3.1184375286102295e-01</leafValues></_>
        <_>
          <internalNodes>
            0 -1 105 -216276342 867524061 597251379 -548584402
            -1421217793 -926905068 571003739 122123103</internalNodes>
          <leafValues>
            -5.9658229351043701e-01 2.7385774254798889e-01</leafValues></_>
        <_>
          <internalNodes>
            0 -1 174 -643834392 1353740980 1109030236 751129812
            -1085802572 -134936 531450715 148894715</internalNodes>
          <leafValues>
            -5.3294759988784790e-01 3.0772447586059570e-01</leafValues></_></weakClassifiers></_>
    <!-- stage 9 -->
    <_>
      <maxWeakCount>17</maxWeakCount>
      <stageThreshold>-1.8106979131698608e+00</stageThreshold>
      <weakClassifiers>
        <_>
          <internalNodes>
            0 -1 173 -67895297 353752471 -45761057 -1646266479
            -335822853 -1389784669 -1879340097 160432043</internalNodes>
          <leafValues>
            -5.6033819913864136e-01 3.3969819545745850e-01</leafValues></_>
        <_>
          <internalNodes>
            0 -1 59 -679215105 -738729997 -1290534913 -75763749
            -208741927 -2002051580 -811676584 -855651328</internalNodes>
          <leafValues>
            -5.1336473226547241e-01 3.5621953010559082e-01</leafValues></_>
        <_>
          <internalNodes>
            0 -1 228 -935658992 -1534141212 -540558732 -302123531
            -1685084481 -107445569 -1194328417 -4200449</internalNodes>
          <leafValues>
            -5.9173113107681274e-01 2.9273775219917297e-01</leafValues></_>
        <_>
          <internalNodes>
            0 -1 14 -449452753 1871780305 1401017823 -14968483
            2013804687 1586202810 -1685340417 -7624037</internalNodes>
          <leafValues>
            -4.6560072898864746e-01 3.8891381025314331e-01</leafValues></_>
        <_>
          <internalNodes>
            0 -1 39 -34086062 -235687055 -208990137 -711477105
            1091586896 -604385045 -606889518 -35918917</internalNodes>
          <leafValues>
            -5.0310307741165161e-01 3.0745184421539307e-01</leafValues></_>
        <_>
          <internalNodes>
            0 -1 190 -32309249 -599617 -452487345 -6304797 -503260495
            -121385837 1427469687 -1091086569</internalNodes>
          <leafValues>
            -3.9239385724067688e-01 3.9866667985916138e-01</leafValues></_>
        <_>
          <internalNodes>
            0 -1 84 -973412609 -212282425 -778514785 -275040586
            1531988735 -636409605 -615490625 1333743691</internalNodes>
          <leafValues>
            -3.9681163430213928e-01 4.0400975942611694e-01</leafValues></_>
        <_>
          <internalNodes>
            0 -1 20 -356515873 -44033 1275681554 1928517400 -307242120
            2063814720 -1074867658 -134907049</internalNodes>
          <leafValues>
            -4.4096383452415466e-01 3.6964803934097290e-01</leafValues></_>
        <_>
          <internalNodes>
            0 -1 31 1431827167 1245905167 -72756875 101705799 1622653947
            1362235603 1907446011 1307566591</internalNodes>
          <leafValues>
            -4.9136960506439209e-01 3.1773146986961365e-01</leafValues></_>
        <_>
          <internalNodes>
            0 -1 234 -1074266273 746583479 -1117782026 -1403987495
            1423666261 -422606689 -1174740108 -297730188</internalNodes>
          <leafValues>
            -5.8879017829895020e-01 2.1732993423938751e-01</leafValues></_>
        <_>
          <internalNodes>
            0 -1 222 -154870316 -2431033 -718087715 -11320347 -263541762
            -2608161 -2089701377 771182301</internalNodes>
          <leafValues>
            -4.4768869876861572e-01 3.5405418276786804e-01</leafValues></_>
        <_>
          <internalNodes>
            0 -1 186 771766653 533311959 320040787 -1356996223
            -548684815 -523663453 -1698440307 -1079026181</internalNodes>
          <leafValues>
            -4.7191739082336426e-01 3.3727321028709412e-01</leafValues></_>
        <_>
          <internalNodes>
            0 -1 88 1761568456 399721927 180453905 815602262 2101476639
            260654301 -1377985201 1330081551</internalNodes>
          <leafValues>
            -5.6809949874877930e-01 2.8604793548583984e-01</leafValues></_>
        <_>
          <internalNodes>
            0 -1 216 641163127 -413198901 -545010722 -13376944
            -537957529 -717568917 -68944265 -8422411</internalNodes>
          <leafValues>
            -4.8245519399642944e-01 3.0922231078147888e-01</leafValues></_>
        <_>
          <internalNodes>
            0 -1 167 -18219552 505740572 -544771 -552223779 -475009801
            -1112477779 -1376522645 -1077936389</internalNodes>
          <leafValues>
            -2.9707726836204529e-01 5.1757150888442993e-01</leafValues></_>
        <_>
          <internalNodes>
            0 -1 49 -137635346 -422782770 -2125377093 -505327481
            -35671744 -570144697 -368315833 1313066949</internalNodes>
          <leafValues>
            -5.5404525995254517e-01 2.9242929816246033e-01</leafValues></_>
        <_>
          <internalNodes>
            0 -1 121 2132080626 -798953369 -1856511515 -170571785
            1136968173 677773446 25201337 -173541153</internalNodes>
          <leafValues>
            -5.6815856695175171e-01 2.7307212352752686e-01</leafValues></_></weakClassifiers></_>
    <!-- stage 10 -->
    <_>
      <maxWeakCount>17</maxWeakCount>
      <stageThreshold>-1.6743092536926270e+00</stageThreshold>
      <weakClassifiers>
        <_>
          <internalNodes>
            0 -1 32 -204473345 -138818305 -289352994 -138419457
            -414728225 -16780577 1346429183 -2817</internalNodes>
          <leafValues>
            -4.8678600788116455e-01 4.0293890237808228e-01</leafValues></_>
        <_>
          <internalNodes>
            0 -1 112 -609222657 -673746505 -753962041 -137890865
            -1296305153 -85200385 -972554802 -145761330</internalNodes>
          <leafValues>
            -3.8204780220985413e-01 4.4757065176963806e-01</leafValues></_>
        <_>
          <internalNodes>
            0 -1 195 -8205 -221614134 -268443152 -5242950 -268500993
            -1578107094 -353373470 -88343637</internalNodes>
          <leafValues>
            -3.8011130690574646e-01 4.4082662463188171e-01</leafValues></_>
        <_>
          <internalNodes>
            0 -1 181 271080821 -1116710024 -40722945 -1083491
            -1165411907 -21110565 -1429569793 -1163389772</internalNodes>
          <leafValues>
            -5.1367354393005371e-01 2.8269332647323608e-01</leafValues></_>
        <_>
          <internalNodes>
            0 -1 209 -1073428530 1087697024 537581911 1169269488
            -71572753 -5642055 -1474124049 -68355861</internalNodes>
          <leafValues>
            -4.9230191111564636e-01 3.3786424994468689e-01</leafValues></_>
        <_>
          <internalNodes>
            0 -1 231 -18928625 709078382 -797362461 2018504411
            1910177800 1842563435 -34670465 -268436737</internalNodes>
          <leafValues>
            -5.2874749898910522e-01 2.6089426875114441e-01</leafValues></_>
        <_>
          <internalNodes>
            0 -1 98 -270545168 -945895868 1150279696 1260209415
            -2087719008 -1962571252 39006882 -540093877</internalNodes>
          <leafValues>
            -5.7184433937072754e-01 2.8629404306411743e-01</leafValues></_>
        <_>
          <internalNodes>
            0 -1 11 -184569473 -194392205 -783502536 272819794 -69511934
            209973262 -605178771 -50594938</internalNodes>
          <leafValues>
            -4.3412205576896667e-01 3.5294935107231140e-01</leafValues></_>
        <_>
          <internalNodes>
            0 -1 73 2004875011 859420467 -555241473 -8390725 847197691
            -1090551809 -69208065 -67125249</internalNodes>
          <leafValues>
            -3.8138473033905029e-01 4.1924801468849182e-01</leafValues></_>
        <_>
          <internalNodes>
            0 -1 198 613971285 496122776 1963403487 1065930943
            -1698402677 -343228413 -1680190545 -1077970021</internalNodes>
          <leafValues>
            -5.3033322095870972e-01 2.7133288979530334e-01</leafValues></_>
        <_>
          <internalNodes>
            0 -1 135 -378543678 -2098567261 -1583034336 1170546841
            7977911 10191887 1747283990 -974129161</internalNodes>
          <leafValues>
            -4.6763631701469421e-01 3.1358820199966431e-01</leafValues></_>
        <_>
          <internalNodes>
            0 -1 156 177536820 804563805 1683476695 -348228263
            -1366709252 -813104471 -1737536785 536824431</internalNodes>
          <leafValues>
            -4.8550352454185486e-01 2.9447075724601746e-01</leafValues></_>
        <_>
          <internalNodes>
            0 -1 15 -19926153 -732473645 -1973104832 -795814688
            320682405 -846592856 -263355 -4205586</internalNodes>
          <leafValues>
            -3.9898169040679932e-01 3.9624014496803284e-01</leafValues></_>
        <_>
          <internalNodes>
            0 -1 89 749996113 -240683 -678324745 -136585887 -124887047
            -108019539 -1406406471 -1413732231</internalNodes>
          <leafValues>
            -4.4808718562126160e-01 3.3750838041305542e-01</leafValues></_>
        <_>
          <internalNodes>
            0 -1 93 -491303354 -610833443 -1470975777 -1194077097
            1213875200 -826320173 -870163204 -10924017</internalNodes>
          <leafValues>
            -4.6499943733215332e-01 3.4567332267761230e-01</leafValues></_>
        <_>
          <internalNodes>
            0 -1 71 -803238647 -713736186 -2146055621 1603108962
            -1753185873 -405731277 -1472919317 -1145075157</internalNodes>
          <leafValues>
            -5.0067448616027832e-01 2.8746113181114197e-01</leafValues></_>
        <_>
          <internalNodes>
            0 -1 212 804990255 805232039 -510869416 -285878331
            1518477119 1331822810 -208932016 -27361409</internalNodes>
          <leafValues>
            -5.7793027162551880e-01 2.5508898496627808e-01</leafValues></_></weakClassifiers></_>
    <!-- stage 11 -->
    <_>
      <maxWeakCount>17</maxWeakCount>
      <stageThreshold>-1.6141426563262939e+00</stageThreshold>
      <weakClassifiers>
        <_>
          <internalNodes>
            0 -1 83 -606865409 -2272769 -549301249 -538969097 1711751679
            -20948345 -7640069 -8948921</internalNodes>
          <leafValues>
            -4.8996457457542419e-01 4.3298968672752380e-01</leafValues></_>
        <_>
          <internalNodes>
            0 -1 2 -294653969 -355474453 -329920165 -2113537 362798079
            107133578 -7350017 -4353</internalNodes>
          <leafValues>
            -4.1116461157798767e-01 3.8821074366569519e-01</leafValues></_>
        <_>
          <internalNodes>
            0 -1 207 -521404418 1078130068 -5147725 -320997443
            -473973765 -7363919 -1734165509 -4226053</internalNodes>
          <leafValues>
            -4.5836290717124939e-01 3.3802857995033264e-01</leafValues></_>
        <_>
          <internalNodes>
            0 -1 34 -170394121 -15204385 1430672094 -164441558
            -1661024059 -564625855 -13644036 -10235766</internalNodes>
          <leafValues>
            -4.0673404932022095e-01 3.6461219191551208e-01</leafValues></_>
        <_>
          <internalNodes>
            0 -1 85 -75504965 -4417 2147216057 -1053953 -18501 -65 -1109
            -2110806</internalNodes>
          <leafValues>
            -3.4652134776115417e-01 4.3207961320877075e-01</leafValues></_>
        <_>
          <internalNodes>
            0 -1 141 -478888972 -245626156 1414579963 -1933913893
            -217204355 1936722173 -95469953 682557823</internalNodes>
          <leafValues>
            -5.6966656446456909e-01 2.6098111271858215e-01</leafValues></_>
        <_>
          <internalNodes>
            0 -1 199 -738197839 -1120929877 -1604717487 -712395135
            -770464798 -559183717 1222579633 -705693517</internalNodes>
          <leafValues>
            -3.7700438499450684e-01 3.8099181652069092e-01</leafValues></_>
        <_>
          <internalNodes>
            0 -1 99 -579349001 1431572863 -1996271095 295261539
            -506081074 -260448597 -120910166 -1737490465</internalNodes>
          <leafValues>
            -3.7990349531173706e-01 3.7117192149162292e-01</leafValues></_>
        <_>
          <internalNodes>
            0 -1 92 -187435141 367331716 -255033808 1962211005 672139379
            336920968 -370889910 -437949537</internalNodes>
          <leafValues>
            -4.4527170062065125e-01 3.4538879990577698e-01</leafValues></_>
        <_>
          <internalNodes>
            0 -1 157 437829108 -1626564452 1101511165 -2223625
            -1449338120 -1078611219 -1147622404 530061684</internalNodes>
          <leafValues>
            -5.1530802249908447e-01 2.7073469758033752e-01</leafValues></_>
        <_>
          <internalNodes>
            0 -1 233 -69206337 764401034 -640723744 -934526618
            1934601147 -557061921 -1481211148 -721949441</internalNodes>
          <leafValues>
            -4.1345334053039551e-01 3.4515026211738586e-01</leafValues></_>
        <_>
          <internalNodes>
            0 -1 126 203971845 203352390 -1629972075 -279726980
            -1215933753 -645169150 363685301 -1343406219</internalNodes>
          <leafValues>
            -5.7822263240814209e-01 2.3202359676361084e-01</leafValues></_>
        <_>
          <internalNodes>
            0 -1 25 2145385437 -386940164 639298147 -1879441557
            -546867951 -168003849 -1082231025 -36700161</internalNodes>
          <leafValues>
            -3.1658592820167542e-01 4.5313957333564758e-01</leafValues></_>
        <_>
          <internalNodes>
            0 -1 166 1349513730 314494224 1784409543 22217104 1110578515
            1403002913 -516948993 2094743691</internalNodes>
          <leafValues>
            -5.5212795734405518e-01 2.6848042011260986e-01</leafValues></_>
        <_>
          <internalNodes>
            0 -1 47 -1814037905 2130424831 1603754238 309356346
            -228821165 -5831839 -82959274 -285935840</internalNodes>
          <leafValues>
            -5.1640665531158447e-01 2.4969561398029327e-01</leafValues></_>
        <_>
          <internalNodes>
            0 -1 94 40503593 -1898002521 -581182745 1317704156
            1989394295 -241188214 1665909109 -823858276</internalNodes>
          <leafValues>
            -6.1431759595870972e-01 2.2594310343265533e-01</leafValues></_>
        <_>
          <internalNodes>
            0 -1 122 718038836 -650395445 -2090511653 -1143057531
            1476421732 -892862288 -87523329 1606121231</internalNodes>
          <leafValues>
            -4.8293578624725342e-01 2.9094108939170837e-01</leafValues></_></weakClassifiers></_>
    <!-- stage 12 -->
    <_>
      <maxWeakCount>18</maxWeakCount>
      <stageThreshold>-1.5094109773635864e+00</stageThreshold>
      <weakClassifiers>
        <_>
          <internalNodes>
            0 -1 211 -2157 -620514557 -707006095 -718540656 -811602977
            -879767617 -640708181 -1048661</internalNodes>
          <leafValues>
            -4.6454131603240967e-01 4.5288753509521484e-01</leafValues></_>
        <_>
          <internalNodes>
            0 -1 24 -213880337 -33496888 911413505 -838802843 -637230917
            -1183752001 1213319415 -12199721</internalNodes>
          <leafValues>
            -5.4811865091323853e-01 2.6967769861221313e-01</leafValues></_>
        <_>
          <internalNodes>
            0 -1 102 -892934450 -4197889 1750098842 -6825571 1145323604
            2014593287 -272757077 -79209889</internalNodes>
          <leafValues>
            -4.4062855839729309e-01 3.2556626200675964e-01</leafValues></_>
        <_>
          <internalNodes>
            0 -1 110 -783043581 14853075 -305671117 -707275453 933286823
            -1681178439 1917125906 1438624719</internalNodes>
          <leafValues>
            -3.7756291031837463e-01 3.7823060154914856e-01</leafValues></_>
        <_>
          <internalNodes>
            0 -1 176 1932476661 -245939569 -502689289 1405348839
            -796048700 -873520254 1652840369 -201326693</internalNodes>
          <leafValues>
            -4.6267610788345337e-01 2.8669276833534241e-01</leafValues></_>
        <_>
          <internalNodes>
            0 -1 53 -622924577 -91235553 1375875830 -430775558
            -704561144 1674529296 -1029120802 -76034872</internalNodes>
          <leafValues>
            -4.3143647909164429e-01 2.9003316164016724e-01</leafValues></_>
        <_>
          <internalNodes>
            0 -1 159 537940016 461937886 286752078 962470876 645965244
            -1660057205 761535710 716184332</internalNodes>
          <leafValues>
            -5.4054719209671021e-01 2.5052496790885925e-01</leafValues></_>
        <_>
          <internalNodes>
            0 -1 30 -2112622285 -2144144094 1373096727 1258487074
            -578573939 -1200779241 -40335149 -79496905</internalNodes>
          <leafValues>
            -4.7390514612197876e-01 2.7588292956352234e-01</leafValues></_>
        <_>
          <internalNodes>
            0 -1 240 -404774513 -515116754 1659609316 -1280321361
            -103032291 1528086715 1355014164 -175639977</internalNodes>
          <leafValues>
            -3.7217655777931213e-01 3.5464367270469666e-01</leafValues></_>
        <_>
          <internalNodes>
            0 -1 130 -125044820 -866090252 1229033941 -293418689
            -1492668491 -115320656 -785651089 801095087</internalNodes>
          <leafValues>
            -4.5155826210975647e-01 2.8794789314270020e-01</leafValues></_>
        <_>
          <internalNodes>
            0 -1 225 16674557 -1348533411 -578578469 -1226934447
            -645834273 -1350008701 -102503985 -1366627329</internalNodes>
          <leafValues>
            -4.2200776934623718e-01 3.1927824020385742e-01</leafValues></_>
        <_>
          <internalNodes>
            0 -1 218 -796921854 -196128690 67129612 1433602842
            -1373900120 14479440 38529535 1087106767</internalNodes>
          <leafValues>
            -3.7930428981781006e-01 3.7697893381118774e-01</leafValues></_>
        <_>
          <internalNodes>
            0 -1 62 -82742956 1946481622 59495975 -729177843 542400756
            -4488797 -374857076 -69236081</internalNodes>
          <leafValues>
            -5.6646984815597534e-01 2.4116858839988708e-01</leafValues></_>
        <_>
          <internalNodes>
            0 -1 239 613808623 -1471568361 -122445826 -1365187745
            1631222643 -606437221 -1682222732 -823592587</internalNodes>
          <leafValues>
            -5.6470596790313721e-01 2.2852580249309540e-01</leafValues></_>
        <_>
          <internalNodes>
            0 -1 57 -836641613 -685568998 842092987 1298646323
            -1115517559 -1978982473 -1559589144 -901410245</internalNodes>
          <leafValues>
            -3.2285711169242859e-01 4.3401098251342773e-01</leafValues></_>
        <_>
          <internalNodes>
            0 -1 133 -75501446 180408472 -785725504 -264457524 715663907
            -1981743096 -223544459 -151545169</internalNodes>
          <leafValues>
            -4.4380697607994080e-01 3.0008795857429504e-01</leafValues></_>
        <_>
          <internalNodes>
            0 -1 104 -964113652 -782578394 1494339997 -1163372072
            -1195247387 -1684965288 -1146045240 717812348</internalNodes>
          <leafValues>
            -5.7280480861663818e-01 2.4432675540447235e-01</leafValues></_>
        <_>
          <internalNodes>
            0 -1 60 1428023199 -477167127 -1677553482 -857553894
            -352101883 -211818488 1897197892 -187771739</internalNodes>
          <leafValues>
            -5.3483676910400391e-01 2.6668256521224976e-01</leafValues></_></weakClassifiers></_>
    <!-- stage 13 -->
    <_>
      <maxWeakCount>20</maxWeakCount>
      <stageThreshold>-1.6216440200805664e+00</stageThreshold>
      <weakClassifiers>
        <_>
          <internalNodes>
            0 -1 54 -632032513 -2366713 -226297733 -69472554 -601898870
            -1953791797 -130625317 -1056785</internalNodes>
          <leafValues>
            -4.6571713685989380e-01 4.1400745511054993e-01</leafValues></_>
        <_>
          <internalNodes>
            0 -1 144 -673710097 -570429441 -850534453 1565392895
            -572531324 -170394241 -1664629555 -1</internalNodes>
          <leafValues>
            -3.3736795186996460e-01 4.5862519741058350e-01</leafValues></_>
        <_>
          <internalNodes>
            0 -1 194 -715140271 280614849 286855284 1034213276
            -1008469831 -2059953506 -1394108248 145686444</internalNodes>
          <leafValues>
            -4.9460038542747498e-01 2.8802806138992310e-01</leafValues></_>
        <_>
          <internalNodes>
            0 -1 127 1787559795 -1375040741 -247073289 -135072354
            1749676661 -7101782 1370952567 -704645131</internalNodes>
          <leafValues>
            -3.9049488306045532e-01 3.6255088448524475e-01</leafValues></_>
        <_>
          <internalNodes>
            0 -1 205 1154433265 453472657 1510072765 -166489333
            1948599409 -354271197 -1064775180 -50333186</internalNodes>
          <leafValues>
            -4.2557260394096375e-01 3.1235706806182861e-01</leafValues></_>
        <_>
          <internalNodes>
            0 -1 201 -218381617 -94677969 -254617953 542232735
            -195297200 -100605630 -531507457 -260837793</internalNodes>
          <leafValues>
            -3.8505020737648010e-01 3.4398922324180603e-01</leafValues></_>
        <_>
          <internalNodes>
            0 -1 155 227068212 71362956 -1853020867 1073600759 -72701224
            -2010480407 -1939456905 255589631</internalNodes>
          <leafValues>
            -4.0669530630111694e-01 3.2989835739135742e-01</leafValues></_>
        <_>
          <internalNodes>
            0 -1 134 -898776533 170918685 1863265923 1621357905
            -399747058 8708097 -41876657 1682702147</internalNodes>
          <leafValues>
            -5.0814801454544067e-01 2.3452764749526978e-01</leafValues></_>
        <_>
          <internalNodes>
            0 -1 150 -593498112 1073893378 1099252049 -846876543
            -1132234702 -988309221 1217121034 772534075</internalNodes>
          <leafValues>
            -5.0712215900421143e-01 2.5591170787811279e-01</leafValues></_>
        <_>
          <internalNodes>
            0 -1 52 -457739465 -77950358 -788454045 -1066996902
            -637052135 -1190860286 -369849850 -24316607</internalNodes>
          <leafValues>
            -4.7721782326698303e-01 2.8065055608749390e-01</leafValues></_>
        <_>
          <internalNodes>
            0 -1 44 -671025936 -737134440 156268935 961369153 1241731669
            -1021900637 774070113 422794819</internalNodes>
          <leafValues>
            -5.8269411325454712e-01 2.4383483827114105e-01</leafValues></_>
        <_>
          <internalNodes>
            0 -1 223 -209727929 671248395 -973074147 39886862 -297158232
            -888504125 -262493852 -64031088</internalNodes>
          <leafValues>
            -5.1618927717208862e-01 2.3536753654479980e-01</leafValues></_>
        <_>
          <internalNodes>
            0 -1 151 5771872 -1109895203 219470335 -1614147106 102890237
            -92042785 689994431 463999384</internalNodes>
          <leafValues>
            -4.6524018049240112e-01 2.8442716598510742e-01</leafValues></_>
        <_>
          <internalNodes>
            0 -1 10 215813694 932279765 4475944 659419693 2021669083
            -402611984 -381651105 -20224673</internalNodes>
          <leafValues>
            -5.6000399589538574e-01 2.2492444515228271e-01</leafValues></_>
        <_>
          <internalNodes>
            0 -1 79 -4720181 -248517205 1622368994 -487923038 1733240651
            1413990157 1145926794 -736655618</internalNodes>
          <leafValues>
            -3.5174709558486938e-01 3.7656232714653015e-01</leafValues></_>
        <_>
          <internalNodes>
            0 -1 213 184078012 1048175108 358274523 -1654764529
            987318520 -1082054648 521007291 735075287</internalNodes>
          <leafValues>
            -5.4500186443328857e-01 2.4185444414615631e-01</leafValues></_>
        <_>
          <internalNodes>
            0 -1 235 -117966697 -1347518385 1073971539 1212819626
            -636619785 -631270669 -1010567916 -858524124</internalNodes>
          <leafValues>
            -4.4495105743408203e-01 3.0454698204994202e-01</leafValues></_>
        <_>
          <internalNodes>
            0 -1 132 1141429269 201753240 1166045695 794808331
            1347425106 -587081678 -437951301 218092207</internalNodes>
          <leafValues>
            -4.5989254117012024e-01 2.9403632879257202e-01</leafValues></_>
        <_>
          <internalNodes>
            0 -1 107 -251554556 1565720845 -922664831 958617865
            -510635876 -1130104671 -1198906852 -1935042133</internalNodes>
          <leafValues>
            -4.1935968399047852e-01 3.0799272656440735e-01</leafValues></_>
        <_>
          <internalNodes>
            0 -1 28 2136589746 -842930811 684175635 -1480471643
            1376313462 1011613768 -83272869 -74887042</internalNodes>
          <leafValues>
            -3.9507526159286499e-01 3.2046976685523987e-01</leafValues></_></weakClassifiers></_>
    <!-- stage 14 -->
    <_>
      <maxWeakCount>20</maxWeakCount>
      <stageThreshold>-1.6468286514282227e+00</stageThreshold>
      <weakClassifiers>
        <_>
          <internalNodes>
            0 -1 203 -800853057 -749209633 -1807780944 1361172737
            -1416967937 -341106261 -138544645 -71304229</internalNodes>
          <leafValues>
            -4.5811992883682251e-01 4.0033361315727234e-01</leafValues></_>
        <_>
          <internalNodes>
            0 -1 119 -430512129 -27837961 2081772799 2056401746
            -173539217 -14968535 -1902335234 -84774350</internalNodes>
          <leafValues>
            -3.7822258472442627e-01 3.5517388582229614e-01</leafValues></_>
        <_>
          <internalNodes>
            0 -1 118 -209722633 1789588770 -636347593 -706236201
            -737938701 138422196 2069353591 1169682935</internalNodes>
          <leafValues>
            -4.2101952433586121e-01 3.2321795821189880e-01</leafValues></_>
        <_>
          <internalNodes>
            0 -1 96 -170674454 1909703214 -654086145 2079318414
            -790514737 -1330540447 -390471474 -225771570</internalNodes>
          <leafValues>
            -4.5958602428436279e-01 2.7663615345954895e-01</leafValues></_>
        <_>
          <internalNodes>
            0 -1 18 -619710358 1659505030 268570763 -517909311
            1893666881 71342081 -1160740851 -43259729</internalNodes>
          <leafValues>
            -5.3031325340270996e-01 2.5868397951126099e-01</leafValues></_>
        <_>
          <internalNodes>
            0 -1 13 265201415 -1347624145 29459919 -1088950003 190574642
            44299562 -94243909 -536873233</internalNodes>
          <leafValues>
            -4.9315652251243591e-01 2.5152686238288879e-01</leafValues></_>
        <_>
          <internalNodes>
            0 -1 138 750782495 1607823315 1078025087 1071145474
            1565728380 -1130626671 2135829246 991912507</internalNodes>
          <leafValues>
            -3.9677795767784119e-01 3.5029855370521545e-01</leafValues></_>
        <_>
          <internalNodes>
            0 -1 29 -27282577 2052039419 1394299292 1948703280
            -354706875 -1757738464 -74753516 -21046440</internalNodes>
          <leafValues>
            -4.0500023961067200e-01 3.3332109451293945e-01</leafValues></_>
        <_>
          <internalNodes>
            0 -1 140 -501161988 2136216366 -2142846759 484241371
            -1549686575 -45045268 702378847 718222059</internalNodes>
          <leafValues>
            -4.8657065629959106e-01 2.7660447359085083e-01</leafValues></_>
        <_>
          <internalNodes>
            0 -1 114 -69223518 -957289176 -770936052 -118358167
            1109098914 1569218699 554355429 -309994641</internalNodes>
          <leafValues>
            -4.2366048693656921e-01 2.8664335608482361e-01</leafValues></_>
        <_>
          <internalNodes>
            0 -1 241 -850534366 41576587 579932865 1121035466 1523410437
            1426612737 -890822572 -714090045</internalNodes>
          <leafValues>
            -4.1857486963272095e-01 3.0944153666496277e-01</leafValues></_>
        <_>
          <internalNodes>
            0 -1 67 -148512254 -1111252446 1645263056 -770645498
            1107313664 -900612025 1420706880 -11451836</internalNodes>
          <leafValues>
            -6.0000658035278320e-01 1.8535614013671875e-01</leafValues></_>
        <_>
          <internalNodes>
            0 -1 188 469488346 1399161808 -2013134591 29598474
            -2121936467 -627859327 -717100385 -1318589553</internalNodes>
          <leafValues>
            -3.4164404869079590e-01 3.6546546220779419e-01</leafValues></_>
        <_>
          <internalNodes>
            0 -1 145 -296769023 1750000950 -573066730 -492820986
            -926722675 1212858905 -1530174185 -453516942</internalNodes>
          <leafValues>
            -4.3999335169792175e-01 2.8597337007522583e-01</leafValues></_>
        <_>
          <internalNodes>
            0 -1 55 801074979 490828938 210472204 -274866915 499711784
            -1743765482 170794786 1861152359</internalNodes>
          <leafValues>
            -6.0869818925857544e-01 2.1321669220924377e-01</leafValues></_>
        <_>
          <internalNodes>
            0 -1 142 551714117 -152514479 319132159 -134930603
            1122501023 992297345 -336983121 -1616876108</internalNodes>
          <leafValues>
            -4.6209761500358582e-01 2.6094347238540649e-01</leafValues></_>
        <_>
          <internalNodes>
            0 -1 36 -1149177910 -1727639042 1372183007 1096558931
            1744855556 -1279115122 -661845557 1245647387</internalNodes>
          <leafValues>
            -5.0237101316452026e-01 2.2710075974464417e-01</leafValues></_>
        <_>
          <internalNodes>
            0 -1 103 -1023482397 -887979893 1190254173 -853260643
            995817458 -16703223 -937241872 508995411</internalNodes>
          <leafValues>
            -3.6835175752639771e-01 3.5037544369697571e-01</leafValues></_>
        <_>
          <internalNodes>
            0 -1 48 -269750873 1862909755 -4491762 -1607794753
            -941830641 -48267699 -2131781546 -219152658</internalNodes>
          <leafValues>
            -3.6756494641304016e-01 3.7574183940887451e-01</leafValues></_>
        <_>
          <internalNodes>
            0 -1 160 720526705 1578520023 1704292571 -12959729 920932273
            -49201013 -883918675 -1427358940</internalNodes>
          <leafValues>
            -4.9992710351943970e-01 2.5399073958396912e-01</leafValues></_></weakClassifiers></_>
    <!-- stage 15 -->
    <_>
      <maxWeakCount>18</maxWeakCount>
      <stageThreshold>-1.8902850151062012e+00</stageThreshold>
      <weakClassifiers>
        <_>
          <internalNodes>
            0 -1 179 -217493065 999637265 -1073671789 -1848573549
            -937249857 -1920464651 -334898177 -1915766033</internalNodes>
          <leafValues>
            -4.6021789312362671e-01 4.0743836760520935e-01</leafValues></_>
        <_>
          <internalNodes>
            0 -1 204 -987243517 100880435 -598880045 -1626156710
            76251327 2051 -1045962071 187428794</internalNodes>
          <leafValues>
            -4.4517827033996582e-01 3.4042352437973022e-01</leafValues></_>
        <_>
          <internalNodes>
            0 -1 33 -748431985 1100191557 1410830616 -536718958
            503554827 1258520587 -542203157 -525337625</internalNodes>
          <leafValues>
            -3.8304430246353149e-01 3.8584461808204651e-01</leafValues></_>
        <_>
          <internalNodes>
            0 -1 56 -552939043 -559134716 1526816842 -553169531
            -285178467 -5419106 -1710568310 -16782709</internalNodes>
          <leafValues>
            -3.4633600711822510e-01 4.1878154873847961e-01</leafValues></_>
        <_>
          <internalNodes>
            0 -1 6 1964040518 -234839934 1025507396 -1088253816
            273973407 -2142134270 -2147418095 -1430584685</internalNodes>
          <leafValues>
            -5.5501765012741089e-01 2.8484010696411133e-01</leafValues></_>
        <_>
          <internalNodes>
            0 -1 192 -916995477 -655141448 -297833877 -2083393669
            -1493928860 -63412355 -19661557 -229386485</internalNodes>
          <leafValues>
            -3.5721412301063538e-01 4.3615442514419556e-01</leafValues></_>
        <_>
          <internalNodes>
            0 -1 81 60411291 -791576309 1091425281 941278378 -599701076
            -401571696 469795979 723242023</internalNodes>
          <leafValues>
            -5.1670920848846436e-01 3.0082097649574280e-01</leafValues></_>
        <_>
          <internalNodes>
            0 -1 80 1185663611 -227061785 -1964065165 -1889275930
            1421953102 1591594103 -815819685 -8688049</internalNodes>
          <leafValues>
            -3.7443566322326660e-01 3.8207134604454041e-01</leafValues></_>
        <_>
          <internalNodes>
            0 -1 158 43129908 -1429204924 268524477 221251863
            -1123376717 -1189314198 554308540 729809352</internalNodes>
          <leafValues>
            -5.8895730972290039e-01 2.5424042344093323e-01</leafValues></_>
        <_>
          <internalNodes>
            0 -1 74 1527970626 -1654493159 1073877150 1950155031
            -1610406876 -1969217296 453001316 1363230800</internalNodes>
          <leafValues>
            -6.1583524942398071e-01 2.1302446722984314e-01</leafValues></_>
        <_>
          <internalNodes>
            0 -1 64 1436867985 -572528366 33853949 352442530 -1719399283
            -846926670 1525586090 -286709573</internalNodes>
          <leafValues>
            -2.5886392593383789e-01 5.8061265945434570e-01</leafValues></_>
        <_>
          <internalNodes>
            0 -1 136 -311841333 -1561681996 -1484949661 -987078478
            -411061027 -2015199233 341824819 -984619825</internalNodes>
          <leafValues>
            -3.5506594181060791e-01 4.2955565452575684e-01</leafValues></_>
        <_>
          <internalNodes>
            0 -1 152 170524705 698460496 1375852143 -767077930
            -779304688 -1206317032 -1658691213 -100423541</internalNodes>
          <leafValues>
            -5.4510158300399780e-01 2.9997450113296509e-01</leafValues></_>
        <_>
          <internalNodes>
            0 -1 149 -783036382 -528056190 17043464 -911996783
            1073971839 733282312 1944550458 -519120882</internalNodes>
          <leafValues>
            -4.5410889387130737e-01 3.1974384188652039e-01</leafValues></_>
        <_>
          <internalNodes>
            0 -1 106 -788479828 1393624213 1359284360 -251305813
            -1995208278 133345 -2128510838 62769864</internalNodes>
          <leafValues>
            -6.2901860475540161e-01 2.2361467778682709e-01</leafValues></_>
        <_>
          <internalNodes>
            0 -1 129 -2035583401 -2038300301 -787856095 -170897225
            -2080352247 -2142830520 25297237 -54081339</internalNodes>
          <leafValues>
            -4.7255289554595947e-01 3.0753260850906372e-01</leafValues></_>
        <_>
          <internalNodes>
            0 -1 191 1073776834 1413537925 -1862215569 -2113830455
            1362101601 -1247608672 -938376981 999131784</internalNodes>
          <leafValues>
            -6.1627507209777832e-01 2.5253349542617798e-01</leafValues></_>
        <_>
          <internalNodes>
            0 -1 230 -144739961 -1748475051 285749720 1213902859
            -657765870 -133529534 -1978580779 -524619227</internalNodes>
          <leafValues>
            -4.6532392501831055e-01 3.1527301669120789e-01</leafValues></_></weakClassifiers></_>
    <!-- stage 16 -->
    <_>
      <maxWeakCount>17</maxWeakCount>
      <stageThreshold>-1.6564052104949951e+00</stageThreshold>
      <weakClassifiers>
        <_>
          <internalNodes>
            0 -1 68 -718932257 -403739009 170026611 2099986359
            -1030061944 -1527296388 -119895809 -79967361</internalNodes>
          <leafValues>
            -4.5934203267097473e-01 5.7149976491928101e-01</leafValues></_>
        <_>
          <internalNodes>
            0 -1 16 -247203077 -2021405009 -552444342 -2025717957
            -2062457348 -987797505 1581602687 -137561</internalNodes>
          <leafValues>
            -3.4457039833068848e-01 5.5003142356872559e-01</leafValues></_>
        <_>
          <internalNodes>
            0 -1 175 1145552917 336134416 65625 -2063330749 -447954705
            436486152 -922582350 103666574</internalNodes>
          <leafValues>
            -5.1117557287216187e-01 3.3465674519538879e-01</leafValues></_>
        <_>
          <internalNodes>
            0 -1 237 -1899244401 -1905815835 -855890474 430898672
            620087026 107347696 -185220032 -1361445637</internalNodes>
          <leafValues>
            -3.7686204910278320e-01 4.6439576148986816e-01</leafValues></_>
        <_>
          <internalNodes>
            0 -1 51 1883295792 -117325822 1149325381 1370229201 8487045
            -2000680951 218651687 671286059</internalNodes>
          <leafValues>
            -5.0418353080749512e-01 3.5792362689971924e-01</leafValues></_>
        <_>
          <internalNodes>
            0 -1 66 -1157959954 -1220659569 -218174426 -139595154
            108135991 -440138227 1415347406 -679815698</internalNodes>
          <leafValues>
            -4.1587546467781067e-01 4.5881059765815735e-01</leafValues></_>
        <_>
          <internalNodes>
            0 -1 111 1501249942 -1672738346 655366 -843022286 8822922
            679477386 1443906 1396705319</internalNodes>
          <leafValues>
            -5.8001387119293213e-01 3.4428191184997559e-01</leafValues></_>
        <_>
          <internalNodes>
            0 -1 202 1887156379 1162693359 -34341017 1075932019
            1677715401 -975780538 -520692503 -237502625</internalNodes>
          <leafValues>
            -3.1468510627746582e-01 6.4516502618789673e-01</leafValues></_>
        <_>
          <internalNodes>
            0 -1 224 -780021165 -1861795830 -2130705984 -485850606
            -1073657713 25624834 -510394284 -990650080</internalNodes>
          <leafValues>
            -4.9761286377906799e-01 3.8074845075607300e-01</leafValues></_>
        <_>
          <internalNodes>
            0 -1 187 -181808496 1359162408 2133731952 -78692672
            -145107209 -713762989 2017481868 -267672422</internalNodes>
          <leafValues>
            -2.7969232201576233e-01 6.9337457418441772e-01</leafValues></_>
        <_>
          <internalNodes>
            0 -1 177 -411317201 787525181 -1628119624 -2138399047
            -1043184572 763166070 -546110459 -444932306</internalNodes>
          <leafValues>
            -4.0713921189308167e-01 5.0090968608856201e-01</leafValues></_>
        <_>
          <internalNodes>
            0 -1 70 1401106637 1476460992 -519974470 1359053184
            -1173774144 -1333128992 613042829 -1429031991</internalNodes>
          <leafValues>
            -4.2976596951484680e-01 4.8372873663902283e-01</leafValues></_>
        <_>
          <internalNodes>
            0 -1 161 641679860 774962996 1845440483 -1884029389
            -1631785303 622231355 21904719 -1108608889</internalNodes>
          <leafValues>
            -3.6708736419677734e-01 5.8285635709762573e-01</leafValues></_>
        <_>
          <internalNodes>
            0 -1 63 809063575 -983456766 -2146389665 -70937920
            1325958384 -2025172132 -1546778327 -34699623</internalNodes>
          <leafValues>
            -2.6891386508941650e-01 7.2593098878860474e-01</leafValues></_>
        <_>
          <internalNodes>
            0 -1 101 -250894043 -1534054399 1073791172 1372064256
            1476532353 76202120 131297 -773095269</internalNodes>
          <leafValues>
            -4.4096225500106812e-01 4.5163008570671082e-01</leafValues></_>
        <_>
          <internalNodes>
            0 -1 43 1938685173 1366870137 650284585 1524803193
            -1084426743 2098157437 -821772529 -653803927</internalNodes>
          <leafValues>
            -3.7381324172019958e-01 5.5793005228042603e-01</leafValues></_>
        <_>
          <internalNodes>
            0 -1 78 -552868318 -2094936532 1795140326 -762646944
            -1888630962 1147434462 -464673696 -791810330</internalNodes>
          <leafValues>
            -4.2386254668235779e-01 4.7531875967979431e-01</leafValues></_></weakClassifiers></_></stages>
  <features>
    <_>
      <rect>
        0 0 5 8</rect></_>
    <_>
      <rect>
        0 0 6 15</rect></_>
    <_>
      <rect>
        0 0 8 6</rect></_>
    <_>
      <rect>
        0 0 20 8</rect></_>
    <_>
      <rect>
        0 2 7 10</rect></_>
    <_>
      <rect>
        0 2 8 12</rect></_>
    <_>
      <rect>
        0 6 11 16</rect></_>
    <_>
      <rect>
        0 25 7 6</rect></_>
    <_>
      <rect>
        0 35 10 8</rect></_>
    <_>
      <rect>
        1 0 9 4</rect></_>
    <_>
      <rect>
        1 0 18 12</rect></_>
    <_>
      <rect>
        1 26 5 8</rect></_>
    <_>
      <rect>
        1 42 8 3</rect></_>
    <_>
      <rect>
        2 0 5 10</rect></_>
    <_>
      <rect>
        2 0 14 1</rect></_>
    <_>
      <rect>
        2 3 16 16</rect></_>
    <_>
      <rect>
        2 11 10 11</rect></_>
    <_>
      <rect>
        3 18 10 10</rect></_>
    <_>
      <rect>
        3 45 18 5</rect></_>
    <_>
      <rect>
        4 22 8 7</rect></_>
    <_>
      <rect>
        4 31 5 3</rect></_>
    <_>
      <rect>
        4 37 9 3</rect></_>
    <_>
      <rect>
        4 38 10 6</rect></_>
    <_>
      <rect>
        5 0 15 1</rect></_>
    <_>
      <rect>
        5 6 9 15</rect></_>
    <_>
      <rect>
        5 11 15 11</rect></_>
    <_>
      <rect>
        5 34 5 3</rect></_>
    <_>
      <rect>
        5 43 8 5</rect></_>
    <_>
      <rect>
        6 13 16 9</rect></_>
    <_>
      <rect>
        6 28 3 6</rect></_>
    <_>
      <rect>
        7 2 6 9</rect></_>
    <_>
      <rect>
        7 9 8 12</rect></_>
    <_>
      <rect>
        7 36 7 3</rect></_>
    <_>
      <rect>
        7 37 1 1</rect></_>
    <_>
      <rect>
        7 37 6 7</rect></_>
    <_>
      <rect>
        8 9 8 11</rect></_>
    <_>
      <rect>
        8 19 5 3</rect></_>
    <_>
      <rect>
        8 22 14 3</rect></_>
    <_>
      <rect>
        9 9 8 14</rect></_>
    <_>
      <rect>
        9 21 6 10</rect></_>
    <_>
      <rect>
        9 32 1 1</rect></_>
    <_>
      <rect>
        9 39 14 6</rect></_>
    <_>
      <rect>
        9 47 5 4</rect></_>
    <_>
      <rect>
        10 10 10 12</rect></_>
    <_>
      <rect>
        10 15 4 4</rect></_>
    <_>
      <rect>
        10 15 11 13</rect></_>
    <_>
      <rect>
        10 21 14 3</rect></_>
    <_>
      <rect>
        10 33 2 3</rect></_>
    <_>
      <rect>
        10 45 1 1</rect></_>
    <_>
      <rect>
        10 45 14 5</rect></_>
    <_>
      <rect>
        11 9 7 9</rect></_>
    <_>
      <rect>
        11 17 3 3</rect></_>
    <_>
      <rect>
        11 34 2 3</rect></_>
    <_>
      <rect>
        11 42 5 5</rect></_>
    <_>
      <rect>
        11 45 6 4</rect></_>
    <_>
      <rect>
        12 0 16 15</rect></_>
    <_>
      <rect>
        12 17 11 3</rect></_>
    <_>
      <rect>
        12 20 13 2</rect></_>
    <_>
      <rect>
        12 21 10 7</rect></_>
    <_>
      <rect>
        12 33 7 9</rect></_>
    <_>
      <rect>
        12 37 2 1</rect></_>
    <_>
      <rect>
        12 46 4 4</rect></_>
    <_>
      <rect>
        13 13 5 14</rect></_>
    <_>
      <rect>
        13 17 12 2</rect></_>
    <_>
      <rect>
        13 18 12 2</rect></_>
    <_>
      <rect>
        13 35 12 3</rect></_>
    <_>
      <rect>
        13 37 5 2</rect></_>
    <_>
      <rect>
        13 44 4 3</rect></_>
    <_>
      <rect>
        13 45 5 5</rect></_>
    <_>
      <rect>
        14 16 3 3</rect></_>
    <_>
      <rect>
        14 19 8 2</rect></_>
    <_>
      <rect>
        14 19 9 3</rect></_>
    <_>
      <rect>
        14 23 5 4</rect></_>
    <_>
      <rect>
        14 23 6 3</rect></_>
    <_>
      <rect>
        14 31 4 4</rect></_>
    <_>
      <rect>
        14 33 11 4</rect></_>
    <_>
      <rect>
        14 37 9 4</rect></_>
    <_>
      <rect>
        14 39 8 6</rect></_>
    <_>
      <rect>
        14 44 1 1</rect></_>
    <_>
      <rect>
        14 45 1 1</rect></_>
    <_>
      <rect>
        14 46 6 4</rect></_>
    <_>
      <rect>
        15 0 7 15</rect></_>
    <_>
      <rect>
        15 4 15 13</rect></_>
    <_>
      <rect>
        15 35 6 2</rect></_>
    <_>
      <rect>
        15 41 6 4</rect></_>
    <_>
      <rect>
        16 0 9 15</rect></_>
    <_>
      <rect>
        16 0 14 1</rect></_>
    <_>
      <rect>
        16 7 9 10</rect></_>
    <_>
      <rect>
        16 14 8 9</rect></_>
    <_>
      <rect>
        16 17 1 1</rect></_>
    <_>
      <rect>
        16 18 5 2</rect></_>
    <_>
      <rect>
        16 20 5 2</rect></_>
    <_>
      <rect>
        16 23 8 10</rect></_>
    <_>
      <rect>
        16 45 4 4</rect></_>
    <_>
      <rect>
        17 0 4 3</rect></_>
    <_>
      <rect>
        17 4 8 15</rect></_>
    <_>
      <rect>
        17 5 8 8</rect></_>
    <_>
      <rect>
        17 10 9 8</rect></_>
    <_>
      <rect>
        17 10 10 12</rect></_>
    <_>
      <rect>
        17 17 5 2</rect></_>
    <_>
      <rect>
        17 21 8 3</rect></_>
    <_>
      <rect>
        17 27 4 3</rect></_>
    <_>
      <rect>
        17 38 5 2</rect></_>
    <_>
      <rect>
        18 1 11 16</rect></_>
    <_>
      <rect>
        18 10 6 3</rect></_>
    <_>
      <rect>
        18 14 8 9</rect></_>
    <_>
      <rect>
        18 16 9 4</rect></_>
    <_>
      <rect>
        18 19 3 2</rect></_>
    <_>
      <rect>
        18 19 4 2</rect></_>
    <_>
      <rect>
        18 19 10 8</rect></_>
    <_>
      <rect>
        18 25 4 4</rect></_>
    <_>
      <rect>
        18 29 4 4</rect></_>
    <_>
      <rect>
        19 11 8 5</rect></_>
    <_>
      <rect>
        19 14 7 4</rect></_>
    <_>
      <rect>
        19 18 5 14</rect></_>
    <_>
      <rect>
        19 20 8 3</rect></_>
    <_>
      <rect>
        19 21 8 12</rect></_>
    <_>
      <rect>
        19 22 4 10</rect></_>
    <_>
      <rect>
        19 31 3 2</rect></_>
    <_>
      <rect>
        19 57 4 1</rect></_>
    <_>
      <rect>
        20 11 7 5</rect></_>
    <_>
      <rect>
        20 24 4 6</rect></_>
    <_>
      <rect>
        20 38 4 3</rect></_>
    <_>
      <rect>
        20 38 10 6</rect></_>
    <_>
      <rect>
        21 5 12 7</rect></_>
    <_>
      <rect>
        21 13 7 10</rect></_>
    <_>
      <rect>
        21 25 1 1</rect></_>
    <_>
      <rect>
        21 33 1 1</rect></_>
    <_>
      <rect>
        21 34 3 3</rect></_>
    <_>
      <rect>
        21 37 1 1</rect></_>
    <_>
      <rect>
        21 37 8 4</rect></_>
    <_>
      <rect>
        21 39 3 5</rect></_>
    <_>
      <rect>
        21 45 6 5</rect></_>
    <_>
      <rect>
        22 20 5 12</rect></_>
    <_>
      <rect>
        22 22 4 4</rect></_>
    <_>
      <rect>
        22 28 3 3</rect></_>
    <_>
      <rect>
        22 30 2 2</rect></_>
    <_>
      <rect>
        23 11 2 5</rect></_>
    <_>
      <rect>
        23 37 4 2</rect></_>
    <_>
      <rect>
        23 38 5 5</rect></_>
    <_>
      <rect>
        23 40 6 4</rect></_>
    <_>
      <rect>
        24 39 5 5</rect></_>
    <_>
      <rect>
        24 44 1 1</rect></_>
    <_>
      <rect>
        24 57 1 1</rect></_>
    <_>
      <rect>
        25 6 11 15</rect></_>
    <_>
      <rect>
        25 29 1 1</rect></_>
    <_>
      <rect>
        25 37 3 3</rect></_>
    <_>
      <rect>
        25 38 2 3</rect></_>
    <_>
      <rect>
        25 41 7 6</rect></_>
    <_>
      <rect>
        25 41 9 5</rect></_>
    <_>
      <rect>
        25 43 8 5</rect></_>
    <_>
      <rect>
        25 46 2 1</rect></_>
    <_>
      <rect>
        26 1 7 4</rect></_>
    <_>
      <rect>
        26 11 9 8</rect></_>
    <_>
      <rect>
        26 28 3 2</rect></_>
    <_>
      <rect>
        26 36 5 3</rect></_>
    <_>
      <rect>
        26 38 3 3</rect></_>
    <_>
      <rect>
        26 42 3 2</rect></_>
    <_>
      <rect>
        26 44 3 2</rect></_>
    <_>
      <rect>
        26 45 4 2</rect></_>
    <_>
      <rect>
        26 49 1 1</rect></_>
    <_>
      <rect>
        26 51 5 3</rect></_>
    <_>
      <rect>
        27 10 4 5</rect></_>
    <_>
      <rect>
        27 14 11 12</rect></_>
    <_>
      <rect>
        27 19 9 12</rect></_>
    <_>
      <rect>
        27 24 1 1</rect></_>
    <_>
      <rect>
        27 24 5 4</rect></_>
    <_>
      <rect>
        27 36 5 3</rect></_>
    <_>
      <rect>
        27 45 7 5</rect></_>
    <_>
      <rect>
        28 8 7 15</rect></_>
    <_>
      <rect>
        28 9 7 10</rect></_>
    <_>
      <rect>
        28 19 5 2</rect></_>
    <_>
      <rect>
        28 33 10 4</rect></_>
    <_>
      <rect>
        28 34 5 3</rect></_>
    <_>
      <rect>
        28 39 5 4</rect></_>
    <_>
      <rect>
        28 42 6 4</rect></_>
    <_>
      <rect>
        29 1 7 10</rect></_>
    <_>
      <rect>
        29 25 2 3</rect></_>
    <_>
      <rect>
        29 29 1 1</rect></_>
    <_>
      <rect>
        29 35 5 2</rect></_>
    <_>
      <rect>
        29 44 6 5</rect></_>
    <_>
      <rect>
        29 45 1 1</rect></_>
    <_>
      <rect>
        29 46 1 1</rect></_>
    <_>
      <rect>
        29 47 1 1</rect></_>
    <_>
      <rect>
        29 47 1 3</rect></_>
    <_>
      <rect>
        29 49 1 1</rect></_>
    <_>
      <rect>
        29 50 1 3</rect></_>
    <_>
      <rect>
        30 14 1 1</rect></_>
    <_>
      <rect>
        30 26 4 5</rect></_>
    <_>
      <rect>
        31 8 3 6</rect></_>
    <_>
      <rect>
        31 15 3 3</rect></_>
    <_>
      <rect>
        31 23 6 5</rect></_>
    <_>
      <rect>
        31 30 2 2</rect></_>
    <_>
      <rect>
        31 39 6 6</rect></_>
    <_>
      <rect>
        31 41 5 3</rect></_>
    <_>
      <rect>
        32 37 8 7</rect></_>
    <_>
      <rect>
        32 44 1 1</rect></_>
    <_>
      <rect>
        32 44 9 4</rect></_>
    <_>
      <rect>
        32 48 1 3</rect></_>
    <_>
      <rect>
        32 50 6 3</rect></_>
    <_>
      <rect>
        33 0 9 4</rect></_>
    <_>
      <rect>
        33 28 2 2</rect></_>
    <_>
      <rect>
        33 30 4 2</rect></_>
    <_>
      <rect>
        33 36 7 3</rect></_>
    <_>
      <rect>
        33 43 4 4</rect></_>
    <_>
      <rect>
        34 0 6 10</rect></_>
    <_>
      <rect>
        34 17 4 11</rect></_>
    <_>
      <rect>
        34 21 6 9</rect></_>
    <_>
      <rect>
        34 23 3 4</rect></_>
    <_>
      <rect>
        34 23 5 6</rect></_>
    <_>
      <rect>
        34 42 6 5</rect></_>
    <_>
      <rect>
        34 45 5 4</rect></_>
    <_>
      <rect>
        35 0 1 1</rect></_>
    <_>
      <rect>
        35 20 4 3</rect></_>
    <_>
      <rect>
        36 2 8 4</rect></_>
    <_>
      <rect>
        37 0 1 2</rect></_>
    <_>
      <rect>
        37 1 1 1</rect></_>
    <_>
      <rect>
        37 13 1 1</rect></_>
    <_>
      <rect>
        38 31 1 1</rect></_>
    <_>
      <rect>
        38 44 5 3</rect></_>
    <_>
      <rect>
        39 0 7 16</rect></_>
    <_>
      <rect>
        39 6 7 8</rect></_>
    <_>
      <rect>
        39 17 2 3</rect></_>
    <_>
      <rect>
        39 35 2 2</rect></_>
    <_>
      <rect>
        39 46 4 4</rect></_>
    <_>
      <rect>
        40 24 1 1</rect></_>
    <_>
      <rect>
        40 29 6 4</rect></_>
    <_>
      <rect>
        41 2 6 10</rect></_>
    <_>
      <rect>
        41 19 4 7</rect></_>
    <_>
      <rect>
        41 35 2 2</rect></_>
    <_>
      <rect>
        41 36 1 1</rect></_>
    <_>
      <rect>
        42 1 6 10</rect></_>
    <_>
      <rect>
        42 22 6 10</rect></_>
    <_>
      <rect>
        43 31 5 2</rect></_>
    <_>
      <rect>
        43 36 1 1</rect></_>
    <_>
      <rect>
        44 37 2 3</rect></_>
    <_>
      <rect>
        45 2 4 6</rect></_>
    <_>
      <rect>
        45 23 5 8</rect></_>
    <_>
      <rect>
        45 32 1 1</rect></_>
    <_>
      <rect>
        45 36 1 1</rect></_>
    <_>
      <rect>
        46 45 1 1</rect></_>
    <_>
      <rect>
        52 16 2 5</rect></_></features></cascade>
</opencv_storage>
